{"W1": [[0.19317646259968813, -0.18270430338382088, -0.153150606139489, 0.06445455328427835, 0.22075286129973937, -0.1844982053009939, -0.06408503646483624, 0.2988730432777114, -0.22173204869334776, -0.03591412136569127, 0.24283265267801699, -0.4020307851680245, 0.19162977653387717, 0.016009106947587552, 0.12436086654891051, -0.06176062910443216, 0.31581684998676884, 0.14374744442136497, 0.11399886677500329, -0.285340070497547, -0.12223567925529459, 0.21060009031113178, 0.4935983289086281, 0.25889186066463377, 0.08282612116248851, 0.45968937702592455, 0.19518773118395477, -0.35811591895515676, 0.20951937311680838, 0.04023306629972698, -0.005236491979485781, 0.3600791252815545], [0.04892134942944031, -0.1086442243373804, -0.2539846984860854, 0.4457696895193491, 0.17567464921736758, 0.527650002218441, -0.03642817575095908, -0.12196108546414335, 0.1938733317856203, -0.17284846385568237, -0.23034855088977277, 0.07867264276599031, 0.09190705582938766, 0.08327725203794462, 0.43700410520043265, -0.04041397322368533, 0.10056241480579808, 0.22104266123683686, -0.15678813889980237, -0.29511601939813425, -0.08672118615923807, 0.13617256878247638, -0.4236686305247156, -0.5311157535764263, 0.021608652383853864, -0.00016290186629756734, -0.0032969841588685535, -0.08542528462458618, -0.46955542305036246, -0.08829613445196882, 0.21228563922703755, -0.1999286355738948], [0.19777969313388874, 0.24262714772819502, 0.17098958446371804, -0.09321508251253849, 0.1787020884825983, 0.07412308835576949, 0.13264276871021344, 0.1925669124685889, -0.23953823235357444, -0.28068964187463347, 0.21388795425132714, -0.3542587603167732, -0.13245943540094612, 0.10115232579664352, 0.16008936654920897, -0.0055504515932356755, 0.23918044356449977, 0.3276158782678096, 0.06322299180960214, -0.34076514356816284, -0.21363364027417506, -0.18242652780837615, -0.3511543551829144, 0.42891336745845376, 0.060787506020187856, -0.08728908525349743, -0.039860649056043564, -0.3794033599391122, -0.3914828664164877, -0.17958889569196926, -0.07491387530045146, -0.3833451558331447], [0.4733107738407752, -0.2881307476298119, 0.0029865151932663312, -0.0673711104207331, -0.11144285670590875, -0.4215729241855297, -0.2691352288894297, -0.49130760131672924, -0.32599463815265334, -0.375471507686866, 0.14869640232809467, 0.17849671923211677, 0.3240591896099309, -0.3776684829926967, 0.015780389138233215, 0.0012247758538292816, -0.40691492930022694, -0.24902689101299785, 0.09118960753472108, 0.21017841435866805, 0.13912393462329176, 0.050836590799339415, -0.12471793286274341, -0.3183680470634692, 0.002164696953093222, -0.23283162595209136, -0.058274177277357, 0.27852254090425055, -0.021247688316246672, -0.037851838733261145, 0.6381063809413215, -0.06547017886186215], [-0.20729607958399665, 0.3058510714220047, 0.1541802707073183, -0.007473594771890519, 0.09174012290219387, 0.009655349826346526, 0.21141373100121974, -0.046821415893054295, 0.039477916157214694, 0.07688432540221536, 0.036726410412791115, 0.3616785798968107, 0.5284014471510566, 0.065425759868338, -0.06760124687979656, 0.4375425883806608, 0.439792655606468, 0.029649894951879537, 0.13888938104119708, 0.13667842237716063, -0.07144675293830284, 0.025994342745278096, 0.2579237626832318, -0.09646383964225803, -0.16651603451313607, 0.0753014821672771, -0.18073487403091526, -0.28030121703411937, -0.3619640134985058, 0.031784013954825975, -0.061452550313181545, 0.0274689904007904], [-0.19366683864704282, -0.032829619021336846, 0.05752249253079794, -0.011460043812774162, 0.11245333425853943, -0.21919179432044494, 0.25285918141935576, -0.16640603336324458, 0.3237897828041312, -0.44017674454316974, 0.46180207416832897, -0.11627508166253062, -0.16849833736830325, -0.13773719213530702, 0.19882741679368654, -0.5392942658486843, 0.480506693996565, -0.24144509886148374, 0.1340073254000187, 0.16218646580402965, -0.19498538628962997, -0.1260595481820501, -0.22358854757259566, 0.1281184522804769, 0.3662809954244479, -0.29484056062920805, 0.25224997324362847, -0.07861570791565899, 0.24714637191695557, 0.03166461666726175, -0.14562971433725702, 0.11211361461741176], [0.3368670926114422, -0.03429660689944887, 0.36275776805960036, 0.13876807000797536, 0.3237079508582574, -0.025236806152942503, 0.33542013926404407, 0.27130658358027543, -0.16017855202185483, 0.07913369757405386, 0.13973484517563609, 0.36820811785820323, 0.19957382718789432, -0.6486115314375566, 0.2965829398524894, 0.06041366783340236, -0.0047344610537282785, 0.10637195199979818, 0.44106132920749297, -0.22127816960543695, 0.09309312685674366, -0.23338097282701598, -0.3905401590951707, -0.06983108408123295, 0.44694338190952443, 0.16051317143894703, -0.33068252137582205, -0.32136539059473546, -0.12918231851010395, -0.4246918670562205, -0.02100131108997864, -0.0626737602227156], [0.19019619568612636, -0.21181155084298334, 0.2010477247242222, 0.038782750937614574, -0.2517737345495889, 0.25784765886868494, 0.029237890928439994, 0.1520364325620975, 0.05617853671670541, -0.3309466915315362, -0.6178702420855511, -0.32939253522657547, 0.49079916763909015, 0.23076852246766016, -0.08196442199563073, 0.11784302007067976, -0.16797438547462257, -0.2899888793345851, 0.46797264213193934, 0.27249572332800914, -0.13838275525110394, 0.09352667655614191, -0.05062328260932869, 0.08716202576593728, 0.33606969500194, -0.11468636749236782, -0.021882916411622252, 0.08356638381983746, -0.2871910453927464, -0.0342834069888029, 0.05445583833449839, 0.2416655412956873], [-0.3042007602713477, 0.17303375899304027, -0.1656671389003985, -0.024942359645527927, -0.09617015988890092, 0.08309824380422197, -0.007158431953723604, -0.1675938792400252, -0.29234586032115534, -0.3936205803703769, -0.2263457450949913, 0.08109147835104084, 0.18412290126747222, 0.06320673673395155, 0.3115881881614877, 0.17887276075492756, 0.04562605358255737, -0.2942980142015536, 0.19068649640050825, 0.7784491577366843, 0.20787559513876405, -0.2219121343686226, -0.26936244626067135, -0.33189529767737364, 0.1666065268897461, -0.15749015135550923, -0.40491221358911395, 0.13357767601603357, 0.6500121799417549, -0.29582223597802365, -0.0627740306012792, 0.029419229280286275], [-0.1183910527411218, 0.2030940604706294, -0.2847761269128493, 0.010610785996505764, -0.2010032431968871, 0.3420956799925746, 0.05509258770289488, -0.15158581198552165, -0.572397255060971, 0.26143410022317076, -0.051720992789925486, -0.2901663361968501, 0.3348517126680725, 0.047640195754352264, 0.3795950762984253, -0.13068468439136424, -0.3055998539682349, 0.049634683526307045, -0.27926760037308446, 0.27781322642206413, -0.2468841150125976, -0.06323699833055323, 0.08084549560800053, -0.32369839431145986, 0.024563839000522815, 0.28973035434384636, 0.08056924436611063, 0.0001162491400144777, 0.15581435910940983, 0.20014870859636774, -0.11196746651327477, 0.09891816404033411], [-0.10847667023921272, -0.09863177553105991, 0.05789258777947026, 0.01934194774947398, -0.21341133427789277, 0.4592309243864008, 0.2019764938341513, 0.09220236921591374, -0.12152562722080172, -0.20935334822127435, 0.18149052213028652, -0.0833394045384493, -0.030852379693661138, 0.005166059175077015, 0.3789500917797713, -0.24951115911824992, -0.19603876428161768, 0.024520376880292658, -0.007801466927847284, 0.025405402800009982, 0.2209625788021816, -0.012620532035757203, 0.37396993678000884, 0.017716416671735524, 0.177795695721524, 0.11794884311516023, 0.023607339867218784, -0.09778534371886007, -0.29590961076614397, 0.11996029442799921, -0.29603388751515924, -0.3499178806870393], [0.09528464052691807, 0.1012640563392426, -0.25263405923532056, -0.28067094602179, 0.115578423252815, 0.17823141582791346, 0.1911675690547502, -0.26196909156149567, 0.39578178337110936, 0.23923943876282255, -0.2578444753964617, -0.12602467660773947, 0.14047255255559427, 0.12115834356630255, 0.011634266172222962, -0.24378102528555656, 0.21264167729317465, 0.19268423856110584, -0.23467122017112474, 0.23025848167893392, -0.12197874199916796, -0.2690055672358176, 0.18423204487262945, 0.8279249793481958, 0.14752527680354022, -0.03431726585052, -0.11240349274544875, 0.07678056070173582, -0.3352100141920827, 0.027684933932581347, -0.263126527750261, -0.05674297428088255], [-0.10503296445718446, -0.33682265479529155, 0.24933413066885005, 0.0011115784812748295, 0.12864698465643293, -0.33305636658119214, 0.29318237887268855, 0.5178741508178588, -0.10784790304052173, -0.24528855057184407, -0.00462814447656648, 0.145012587455796, 0.1989991999903305, 0.13834553324109247, 0.2350531178923213, -0.11137547386694992, -0.2044311358444046, -0.3701829455903735, 0.23974866719811144, 0.08097446016099656, 0.03157290261979949, -0.2449470492422629, -0.14553831539075024, 0.10309240761408918, 0.0754929757339059, 0.06290179386915945, -0.3618569283492897, -0.1931066478727089, -0.06887806972371976, -0.3300942597051292, 0.13065701847176664, 0.27242788759434194], [-0.07881476525226357, -0.29737348234153455, 0.23292245893106894, -0.021934002013886723, -0.01440897950992963, -0.04426905559920961, 0.09811585307462325, 0.20500272335557024, -0.24692891369413666, 0.16900318136136097, 0.16780087676917596, -0.1348042115940191, 0.09040844326235846, -0.14584515140068843, 0.39242004366383715, -0.006934637628010112, 0.32972906394321305, -0.004197607848266555, 0.288586279915446, -0.09008283751263656, -0.11765874256667755, 0.17061429295457292, 0.3963857244829577, -0.18161397399582108, -0.24172680791687276, 0.17230140110950012, -0.00887911601642821, 0.16334741993348922, 0.18004585003423176, -0.0679050829688197, 0.18905059479047284, -0.28314360330929755], [-0.0908974399684369, 0.2936636613800792, 0.1792912098635168, 0.34981697533998396, -0.0494580526852956, 0.08438452582178509, -0.224335177820291, -0.3115682009257899, 0.22451439215468022, -0.3207822167710921, -0.16357094635006506, -0.2046444229160926, 0.14612394705281084, -0.06314015451410382, 0.5091392800583744, -0.059793379453541996, -0.081642654869345, 0.10549772412824017, -0.05175470976985774, -0.026077034345790843, 0.14500967784425792, 0.1594849772045727, 0.2899868736395161, 0.16630293215934733, 0.07632090602513313, 0.4034378533123062, 0.004301579998930376, -0.053650698259454815, -0.22338945135897706, -0.15019164542659513, 0.23349074029389566, 0.3737452640346756], [-0.09178081392491383, 0.15394714824407338, -0.134455886382528, 0.20802988887836765, -0.04822655442469797, 0.02036064636817912, -0.1478853981490921, 0.14730409036855105, -0.12845827284128902, -0.14769720371123482, 0.08295561254179043, 0.13279495165698496, 0.13032958554800056, -0.0640295921741082, 0.2235470826776759, -0.293479155643015, -0.06500812188040091, 0.3905959863660129, 0.18910411961980017, -0.07991666126383973, -0.055701672132632725, 0.47919277125503273, -0.1789409337605796, 0.06764822395228683, 0.2486185203496906, -0.37676519488003707, -0.18557106521067052, 0.26782782202322875, 0.2196780763123781, -0.6046316417616433, -0.23094110411911292, -0.4830568432057556], [0.0634651325665062, -0.08908172281974769, -0.0846287126221793, -0.08267869682860746, -0.09566464853428717, -0.07727779014222852, -0.08496532052771559, -0.41702616403400977, 0.38324715986325336, -0.30172169489038214, -0.08338780742123365, -0.12971485773849284, 0.3022832379833366, -0.07483623069977914, -0.21391139012176646, 0.09857750202570457, -0.1602732969695721, 0.2473426541801718, -0.29124948588279453, -0.13450228284679663, 0.5270993456825976, -0.18395031236723683, -0.1748291878771885, -0.15077845558016678, 0.39790357778529156, 0.6201421961405994, 0.25926322784629824, -0.13163389691917102, -0.1661549583799318, -0.18069082661214447, -0.28327783087346786, 0.0793299282649773]], "b1": [0.2541556803483456, 0.02511162848299394, 0.17256251515790189, 0.37954019542949663, 0.26322665409700896, 0.03279671416855278, 0.003116689214978623, 0.04368841807126416, 0.07647498643875739, 0.013530292197517951, -0.014428613852711977, 0.1289378398402542, -0.03377802047230788, -0.03969139097012244, -0.04174996366777846, 0.12147013204389934, 0.128609745651762, 0.021316764045368482, -0.05576315784303999, -0.07882280556190945, 0.06717482013243371, 0.12257688131694586, 0.01051198154542205, 0.012817043720065124, -0.012445407952598143, -0.0010754801603235322, 0.03891102006980546, 0.019324222225352187, 0.04658234778771567, 0.1094788094986368, -0.03528705355979961, 0.21707819292895444], "W2": [[0.08535120977993599, 0.09321712289950977, -0.23437395421531096, -0.047890942143619906, -0.052298254153629826, -0.1627838328641997, 0.013717769851613801, 0.04932863850621852, -0.022204983797195443, 0.23251897728350293, 0.14920925904776566, 0.32036467646137284, 0.03365789914953935, -0.2439497782167442, -0.10208337668977682, 0.14425188817264112, -0.24790562613039446, 0.1500213918321218, -0.18439554238583472, -0.007770252475486623, -0.026536857083740855, 0.029585150495373178, -0.3210948374394874, 0.14688714239007686, 0.12670174507029197, 0.0430215015751897, 0.3273299723986808, 0.1826703391278283, 0.1997012530472487, -0.13246247847136539, 0.06397983922044763, -0.027010291075607352], [0.23280580996033204, -0.05055170304097684, 0.24506698947071953, -0.0058638547208201735, -0.2571891491245026, 0.43199026095856546, -0.19366741175218777, -0.19957800612097595, -0.1274489289709097, 0.03480218951729682, -0.06356518505673114, -0.06134175968885419, 0.20008070179706883, 0.10533649725607479, -0.010411316413147837, 0.07387633128016907, 0.01288971313633328, 0.061250810175071675, -0.5320754395646979, 0.12811279057455935, -0.3037143975988524, -0.2821623616010601, -0.17082775975668993, 0.19422239937569122, 0.0004741645044541585, -0.06558520404051588, 0.0004270478956257088, -0.11760756399482221, 9.517608513811368e-05, 0.09638948547251966, 0.0588731580848484, 0.08029074551003912], [-0.0037060109815758627, 0.12333550747177421, 0.11500417392023063, 0.11028587926378469, 0.02709051909812379, -0.289709634360633, 0.2683559416312178, -0.15754215971644098, -0.021754894413744414, 0.2511914790392128, 0.17015395005074982, -0.054797403571556665, 0.19993823490066825, 0.03401406633373564, 0.040904391479585134, 0.2917585550833372, 0.35011947672076754, 0.1584421671964825, 0.04562548079361049, 0.1978653465521983, 0.13305430521939823, 0.17632925397179866, -0.3149198408438678, 0.19278493502813293, -0.12442635061774376, -0.1810203143142598, -0.19472941902519772, -0.16279296378654665, 0.36719314514174645, -0.05247234113551908, -0.0736339242273474, -0.12479135359214154], [0.25029242090786197, -0.29836727064846, -0.24934945000130412, -0.08951220999323513, 0.36530219674355313, -0.2805713306225053, -0.03528383918136616, 0.007406300279308817, -0.21705266214724075, -0.17942794433888754, -0.26788221947876584, 0.2180399248599872, 0.09092584451075851, 0.012939863636589086, -0.12522509783267263, -0.38373403474341633, -0.13127321054063057, 0.24050109434596026, 0.06115412565700612, 0.17501232070821937, 0.3755175340482581, -0.27614645083834083, -0.03432649602067819, 0.02717957251825751, 0.04928186558111465, -0.013512602035650481, 0.03724620399420672, -0.37033202393307385, 0.03801039040036546, -0.05558517464236237, 0.09166545517721242, 0.25659572209472337], [0.04696241179955082, 0.22398099212228206, -0.1661764243544893, -0.03404281167432317, -0.19400713874601075, 0.3236769000275611, 0.024124578136350036, -0.1636079158812116, -0.11790207671653996, 0.24173104986906951, -0.022826743671098756, 0.23396538501569517, 0.1664535330807328, -0.27178189801699887, 0.1849113729887672, -0.13164696673287643, 0.4281100349313439, -0.11944133025018337, -0.1662104213464575, -0.07471772208951245, 0.008004152606559121, 0.0686191513204855, 0.03552345338373724, -0.14167230651447965, -0.12641843463607735, 0.015011611086432737, 0.10216358237567429, 0.34177048311937114, 0.23551185276110487, 0.020450356000864117, 0.19574784751461283, 0.17337794452234848], [0.19724539739445837, -0.0911454397839284, -0.0813556092113097, -0.4128611039917886, 0.26278870960406886, 0.09812116410858643, 0.0033267738925736993, 0.053915832200440245, 0.48268406338589176, 0.0917782907813551, 0.1593356460745934, -0.07621716768918006, 0.10158375736038253, -0.025585148475600304, 0.24970773247614217, 0.06490663663034045, 0.19318809847844998, -0.09754226772332923, -0.21572502340415, -0.2354112946253529, 0.11191731596412896, 0.011957568685972628, 0.10567315045973585, 0.1863628371599358, 0.18537579178962105, 0.02000983889480686, -0.16741620029109314, 0.1790589023728314, 0.45508419231711983, -0.11299497858335723, -0.30868744891023864, -0.22671891151435455], [0.20343532739731165, -0.027143279215718727, 0.14613983141069986, -0.021506312030579948, 0.15866057346220544, -0.07387903973887847, 0.3925317436168924, 0.26621107223189355, 0.25287641033517844, -0.15131045723150344, 0.12790638095004625, 0.07624461536159886, -0.09179964837450437, 0.12069893143435947, 0.11007300527234039, -0.1392549930787204, -0.046509639943631345, 0.11398490506083696, -0.15301476598354416, -0.2709959744962699, -0.12758321669372713, 0.17604742450691518, 0.19681802000823792, 0.02214252546400121, 0.12402317058162078, 0.01152151738489554, 0.02515168553548036, 0.06531124128635198, 0.03789980709232802, -0.11241520367334909, -0.052023934869423465, 0.15129124855048526], [-0.19144794839457333, -0.11112349263732395, 0.3235150115412395, 0.15904697487116903, 0.09445476839453465, -0.0493993764118508, -0.2136519487339579, -0.07622896794764351, 0.15824618780824967, -0.22298366498234662, -0.008149215103130268, 0.41306633812336946, 0.12141232231399102, -0.04485713760311064, 0.038425242640863166, -0.05071002764768202, 0.024615227083693052, -0.11731202674488281, -0.2938334778128325, 0.08958399279542441, 0.027244775126031368, 0.09816052116999865, 0.2101012866552344, 0.17266752159124985, -0.020070917248054748, 0.19660725315419483, 0.1617768231907285, 0.2440882719636994, 0.15097832774433742, 0.04721720457216654, 0.07707875913199506, 0.08814811342652215], [-0.18412128061521543, -0.03640772901672423, 0.39578764683358125, 0.1426000598954133, 0.23754858209021346, 0.10091782333793407, 0.12847670140751224, 0.06969754768539142, 0.15621323886409355, 0.17562666707225955, 0.11996270327366042, 0.1851965632826855, 0.05991932612596297, -0.23305416464621764, 0.19628128959586655, -0.0213690385687147, 0.032777789870547615, -0.10633960278014687, 0.12248827104358355, -0.29881018534309267, -0.3944105909383894, -0.009774788447309217, 0.22397810690378125, -0.3728472904876796, -0.182669429821644, 0.07499155193214617, 0.17878264622303117, 0.06472330708580012, 0.16392594377576497, 0.12598840321121235, -0.10531150707958803, 0.017715534453121372], [-0.2401160782195886, -0.0336215360162922, -0.262475432634582, -0.04315102793082825, 0.42927897540794757, 0.15277309646416806, -0.200281930912495, -0.015666821829144868, -0.2502886878503781, 0.3580786569681689, -0.1332876489989961, -0.24349084698926696, 0.12095180443062546, -0.23071503043043892, 0.024519275822961917, -0.11868805352565581, -0.05069070856688312, 0.012370985149522016, 0.06388196880167142, -0.1606897657619829, 0.2907606483735701, -0.21553469280740695, 0.3193548113841617, 0.21132643738911566, 0.2706530960032937, -0.1429631224895242, -0.15574745651703248, 0.25841309296659987, -0.007271411771754927, 0.2145901268353179, 0.11349786025903022, 0.13374843815538723], [-0.2895092931838762, -0.31412732267720156, -0.038946699569814364, -0.0692671218751327, 0.12721236937418295, 0.20942752863401434, 0.002242912848575461, -0.07325171713486395, -0.07872147493527507, 0.13299559031226177, 0.2846147952084779, -0.0744838475180726, -0.04390739086113283, -0.19771969362727201, -0.28108301921817164, -0.28174803677494886, -0.19298169287709702, 0.08452003188960876, -0.5260911419100901, 0.06005790342189278, -0.031169471419642956, 0.05831936847632951, -0.2374540735360423, 0.17192568939495212, 0.02849239691777253, -0.1770005610504596, 0.4008415167712448, -0.2543449351964681, -0.02943790098613592, -0.012524360038649632, 0.24086538381116337, 0.12436817986402673], [-0.011179962465217186, -0.15910217839655874, 0.028357190455670853, 0.12964539124896346, -0.11298633627632677, 0.04873214123384377, 0.13588718134819894, -0.13073637106512218, -0.05836700373136774, -0.5300532200831218, 0.11358592724491295, 0.2968395010231902, -0.11943637149408085, 0.36301164978347716, -0.17404218132324725, 0.11605834346245822, 0.26393393829366046, 0.019511104067024963, -0.22259979019720444, -0.2240264492225941, -0.08420022799882966, -0.03898029164546375, -0.15347515784339513, 0.15267319553912717, 0.2375931455111783, -0.17149983266132102, 0.1221454388130507, -0.06955840683830895, 0.0642885264197582, 0.19562480319753514, -0.07970597341326004, 0.053454322073317226], [0.20387918486838666, 0.04817528414907365, 0.4944402659593651, -0.10328300258055892, -0.372127669669553, 0.16487719222232725, 0.1629956215876344, 0.10487337121634813, 0.379881892905121, -0.09463870094265449, -0.12801439265884762, 0.024218632814295277, 0.13047802198269787, -0.010988907705637247, 0.023108469719199894, -0.3714322520790315, 0.011387140096225826, -0.3434101480514489, -0.27667359854158946, -0.21739487457339146, 0.2552918285263071, -0.12027059243587582, -0.12867889445529265, 0.15021166330974067, 0.08527063601547526, 0.05327977068499089, -0.03824400288823065, 0.04129322984239313, -0.10388558262939915, -0.1383304940467429, -0.01817814176939566, 0.2589143407005763], [-0.23038358675403253, -0.2006797138540353, -0.05198971734867392, 0.05763545969676242, -0.21888634375597865, -0.14039137138749738, -0.013000244345599292, -0.09323073106222625, 0.10892056884420014, -0.07040689464806506, -0.02428754828123573, 0.22459555404056036, 0.10038938905911388, -0.07046499657401177, -0.02316861850899984, 0.033660688324107714, 0.04097179767794092, 0.17054940550388112, -0.004072809082387464, -0.09371676719731846, 0.0605125301033527, -0.17554220071102078, -0.0362537156413946, 0.41751507779582936, 0.027043952815638084, 0.23887194047323326, -0.29418792844449265, -0.21051853196508766, -0.24096431195739565, -0.02430932989964216, -0.2597311116786367, 0.24246499571532998], [-0.22898519118890018, 0.3808585157456278, 0.06744925187205957, 0.18993700008591824, -0.2520357636616845, 0.09611037170144639, 0.33105125827631515, -0.2774823181576915, 0.06356999321990779, -0.2202702273005366, 0.022300093295329337, -0.3324988357311764, -0.1977428464177472, -0.13441282796782697, 0.057567795185141164, 0.18759669872271337, -0.1098314820879454, 0.012048371646203967, 0.07627929940448976, -0.24761109695802264, -0.008397307689098781, -0.12220296397179031, 0.05912747544308078, 0.0159410193936593, 0.03766893468569792, -0.16244370699798705, -0.022222618525170698, 0.2878883022964093, -0.28880693915891587, -0.1731478606846508, 0.14073306328928312, -0.23402471290218232], [-0.16660253050966997, 0.04748919580193483, -0.2920484656568562, -0.21741056983351592, 0.027257549878704997, -0.032769470083771346, 0.14287665475608988, 0.26544175106749984, 0.03550599448763941, 0.032953900571832756, 0.32146613233670474, 0.20328195879812197, 0.0692645024457084, -0.0897055786710966, 0.033101186663496554, 0.08913368376088192, -0.25153793433849014, -0.07241190235899034, 0.002630626251518359, -0.02666961412162309, 0.02544006840870909, -0.1780163915579355, 0.037294665474889306, 0.476159423543416, 0.21521159580141985, -0.045740705085421635, 0.22845630451985127, 0.36218291089310634, 0.22828187121266474, -0.10612202397127146, -0.05553414992745369, 0.32256042320677997], [-0.14821581677046408, -0.029526297682708688, 0.3556423369882394, 0.1652437586147596, 0.03958069690428956, -0.0840908879869421, -0.17494781002309023, 0.13013098009305948, 0.2203018299896157, 0.22914201540782572, 0.11232684392647067, 0.2649030809988938, 0.22249604078719956, 0.02931087509555553, 0.19952951404483515, -0.03273557008942971, -0.04053304231502726, 0.09557640872268372, -0.07040777046705697, 0.1720265301050773, 0.09696657933022863, -0.10011048192694214, -0.07914237071535889, 0.03384057351844619, -0.03651788278338261, 0.05036011840182427, -0.24686263368637457, 0.019993285964056952, 0.012424444046646381, -0.041673036028177166, -0.07656638320126717, 0.06260835698685384], [0.17115747860037048, -0.14550734977489604, 0.21500613865430737, -0.12464802674131172, 0.12391484761699426, -0.002656240088160294, -0.01962045794116537, 0.10459804799035717, 0.1688644992700924, -0.2781859783202935, 0.2948886478226098, 0.18940615349169052, 0.06968329535290084, 0.050362514033792605, -0.36910688003547204, -0.0425140921454796, 0.0694750216387101, 0.006320458381981618, -0.1276601666410453, 0.3392904529854936, 0.26581472214950475, 0.006148836410871586, -0.006335316393017259, -0.042010681861070355, 0.18237865082817484, -0.06990852672634229, 0.1673618645535832, -0.11521022112698037, 0.042328871328480226, 0.05199564681522754, 0.255732244312942, -0.1912172456122993], [0.2252523700185865, -0.06268564888767873, -0.1281856058176603, -0.08885782697265787, -0.14435781380448853, -0.08868999190419463, 0.1894340464257469, 0.22302307958281772, -0.032377441697266314, -0.006426278693248587, 0.11838124118457156, -0.10237010425195912, -0.03266070676036902, -0.0601365735955264, -0.0037370093015529162, 0.13648265238046958, -0.37530751176009186, 0.29307117042552316, -0.1938174294332856, -0.04964109035289736, -0.01721765844740702, 0.015197167948032938, 0.0216397727178991, 0.39677493478130577, -0.054925234657939116, -0.04488981934143786, -0.06892877060019371, -0.2594203435340527, -0.14872121802345317, -0.11123581604651092, -0.16711711743758403, -0.04212331043241092], [-0.3611560667884646, 0.15155687011266106, 0.2537086680439834, -0.20496344969370128, -0.14493722450799326, 0.21996607121307346, -0.05739903389520592, -0.09980924558951489, 0.1926120312780682, 0.12824488093577244, -0.033750188451499866, 0.25840559093781634, -0.026923247703058203, 0.09220241848456946, -0.10258963274426112, 0.08841391597602166, -0.22016037092898616, -0.20436814964269337, 0.2957932470989414, -0.19620930315897267, -0.15722293687912797, 0.04776585515407167, -0.13019848542472548, -0.03556240592078685, 0.0701931360595555, -0.36085763958085815, 0.2734542404041269, 0.30720442923538493, 0.060912816881007054, -0.4579827036604551, 5.5376587929074924e-05, 0.06110094004715934], [0.05153399884545986, 0.016043167207916355, -0.01617500315994045, 0.27312434160156607, -0.1391211999570681, -0.11252919918558371, 0.023380471873729596, -0.1377453192140168, -0.11657379121952348, -0.1245192006771872, 0.17193534733156463, -0.05011025545286958, -0.23211794135923572, 0.5581914668234963, -0.09044428339472338, 0.1435591592548541, -0.3730823158952066, 0.1126186758148077, -0.0017118039430725834, -0.04569258594977611, -0.053440076008082905, 0.24561811395422742, -0.16154474236023883, -0.07375078520624048, 0.23139894986580145, -0.08489443513187285, 0.18585804855925428, -0.12830585947311865, 0.16787766111203067, -0.16816951775779038, -0.07149620781213095, -0.3098563544597831], [-0.23698675593916335, 0.08229898881576649, 0.31528387488495874, 0.034228954238555286, 0.14192376059323192, -0.20089658182862508, 0.028774429201618885, 0.39720800038090537, -0.017647565051256687, 0.021818878468273396, 0.26181955513904503, 0.00019127327775171846, 0.1107176562398959, 0.186236246583171, -0.07858893886209409, -0.08559725462311747, -0.010601236284795519, 0.17236443315140856, 0.1561224170760994, -0.13226207580125934, -0.15283307827517315, 0.22519539703246436, -0.0956796465101529, 0.022272573717776474, -0.16874501304657794, -0.09869962242057838, -0.03527800261137877, -0.2318603528407528, 0.08798693358211125, 0.10210647620608299, 0.1805309140598771, 0.1934013289631763], [0.17397073369679927, 0.04371257137166988, 0.1392060728956344, -0.5397661836489704, 0.1150430391827811, -0.015348912215340363, -0.19203315554520023, -0.06337442646148292, 0.1340670222854224, 0.20142331245866835, 0.2420852742459955, -0.14381391243937575, 0.13590979936764172, 0.14291568938352409, -0.04573205020470009, 0.10841487996379495, 0.005136313933462451, 0.11439104127639504, 0.22395402356639602, 0.2906975826127116, -0.07831474557540202, 0.04831229325749543, 0.17349462107020364, 0.10257464480483243, -0.15893099305180033, 0.2427030420127917, -0.16804230581627913, 0.0009674016007779998, -0.03109476697194907, -0.11332563449912565, 0.3617292074639693, 0.15767654892976685], [0.15094536419002727, -0.10516912154351284, 0.07656197145585106, 0.05514133126470662, -0.20982055902645763, -0.07110285449244608, 0.14330591067951456, 0.1010373629871463, 0.23229464645783401, 0.1352038474972306, -0.025740494660735518, 0.16231877838290037, 0.22590062192990776, -0.16965976883069034, 0.602317977983553, -0.2965270645025076, -0.09020452328362386, -0.3150965896587501, 0.22933923585016341, 0.09638776604284721, 0.017336800073461042, 0.1199378189292043, 0.0899807097585797, 0.08530741978326802, -0.0145694395252107, 0.32497378819815187, -0.16995311840597213, -0.019707769126181596, 0.06531508980081795, 0.20188575675244808, -0.10609367105555949, 0.16794349150198234], [-0.11600114313788991, 0.19701708685790942, 0.020100134343942377, 0.011319570607667704, 0.11069714209979548, 0.0945867824497153, 0.015943235202880667, -0.1253741099658425, 0.1387636784077258, 0.11749197215235839, -0.40533970134349007, 0.11634543823593181, -0.27487607646984846, -0.20200210760030035, -0.08675380273402125, -0.2740737383438358, -0.12219606655096257, 0.36723814153183026, -0.1596546215588271, -0.1651354142309225, -0.24560283693985735, -0.01670186383413961, 0.1642327730324244, 0.23014866929205235, 0.09018174975395779, -0.060781770930834825, 0.34054100693034556, 0.2970213472618687, -0.058597941067651795, 0.14665278043675278, -0.1480810916573652, 0.02270773120202385], [-0.3541532203601634, -0.11903209063263338, -0.04966623391965016, 0.32604844971775193, -0.03324974520586922, 0.06787681631196522, 0.19183161795593417, 0.019974392843692287, 0.007008700637254412, -0.08699468581271276, 0.26401182539612217, -0.012195505064327577, 0.2701692416246191, -0.07943772309871504, -0.12085206191909711, -0.014312506945659987, -0.10075022592988284, -0.06451569590492486, -0.08437141334672757, -0.045783293010205436, 0.06479170704859219, -0.05068753272284652, -0.25048331930304735, 0.15000705155626176, -0.6521847155166454, 0.06760513132302264, -0.1769834615527737, -0.1918957686104231, -0.11931088363948661, -0.07209583733462384, -0.24064853270218464, 0.02713829942681218], [-0.1566121030218531, 0.3056710374783505, -0.22802402258622023, 0.046521044223936665, 0.038459673572834814, 0.14563457729523321, -0.17384328120535703, 0.20680805407192915, 0.25925359795086, -0.06252365452345937, -0.047434303303720726, 0.09119669765331857, -0.0156154351843835, -0.13309118973014547, 0.3012384500147919, 0.16150745502059824, 0.05851265094584197, 0.062303810901728464, -0.2385048673821878, -0.18242824123442106, 0.09244062369358899, -0.020576876339273825, -0.07902270252625863, -0.11387619737102193, -0.09779892325676336, -0.0731607796604592, -0.2443909772644055, -0.20327268081889924, 0.0750010465140468, -0.03320845171590149, -0.010888162547116604, -0.13734895693335086], [-0.16433025640182328, 0.12047278421811781, -0.10387476326701837, -0.04935135027263838, -0.18169764235005278, 0.18801416961451445, -0.24097440387457644, 0.0871540588111285, -0.03678804337597404, -0.14345548205928027, -0.19983020775019397, 0.1555941966587572, -0.087329625680963, 0.16113937086486782, -0.01944308559699464, 0.13122057299002032, -0.19361867020553705, -0.07132667621193224, -0.2166578627196742, -0.13950605729575036, 0.018197156236018135, -0.013351172060783643, -0.15757188546867618, -0.11318425716398615, 0.10257899763202723, 0.05160890397633826, 0.1022307964468832, -0.18163555887785732, -0.18835158480060332, 0.01897205847428195, 0.06500007441692393, 0.10657756894236974], [-0.12642277862684492, -0.1907811070965603, 0.038163278121530766, -0.08689658957499709, -0.2172895040216355, 0.05713414665533288, 0.31793887310887836, 0.27231372667715026, -0.1321172290153627, -0.4398818860388958, 0.10174360342480987, 0.2674613950127564, -0.30469762299086933, 0.2218655375266128, 0.23275984320140844, 0.15028944811163164, -0.31506220395604095, -0.06449578373410168, 0.028968915425157418, -0.04804693306904937, -0.1336405458586551, 0.008334552415023134, 0.09054090858609933, -0.24664024918656435, -0.09390716997935483, -0.09338049744252341, 0.11273716546924885, 0.2912764537680163, 0.043223373688462394, -0.029869467573559825, -0.2428890963028339, 0.04019672981848813], [-0.11553393890559986, 0.041707317255431614, 0.581754118027596, 0.11781011420704618, -0.11703767044175126, 0.28806401462711706, -0.3151055913897609, -0.026997285592386934, -0.1091649922543309, -0.07917289313739705, 0.007883520571937828, 0.34060977099496104, -0.06225508919584216, 0.07592780399745147, -0.18069358805273467, 0.07786436601561317, 0.028131781074509723, -0.2637263555871914, -0.0910444114000187, 0.1288201454074186, 0.018153532896472473, 0.025976406297827048, 0.10385166402982145, -0.04275039464779332, -0.3533602525637357, 0.15883968956912997, 0.06571928239226059, 0.010135213759833084, 0.38053074533990283, 0.176531514891595, -0.10750368475640835, 0.1552838354149688], [-0.01588358316588806, -0.12263315078520591, 0.2451182440237289, 0.12413790966891373, -0.1425256148046825, 0.04640700751511549, -0.03802070874970023, 0.020219605496061603, -0.03339482552367906, 0.21653193189558478, -0.267725912795927, 0.14692096495719317, -0.2005056657879115, -0.045645799426298275, -0.2649387638007398, 0.01513829703995802, -0.06992074378721233, 0.002378555713523225, -0.013411690408285009, 0.05147988770885186, 0.007461503963442214, 0.13325311485979272, -0.08343652683994, 0.19404485333046517, 0.28058958265989103, 0.21274416203311994, -0.16824072546151622, 0.038877073213593696, 0.09711693722991589, -0.05239706681182609, 0.1668864634652213, 0.0614780727730857], [0.0720533542882538, 0.23178963432544258, -0.10927866000104848, -0.11921842898034953, 0.246194301848088, -0.02897679175879897, -0.21422329341322752, -0.3179632688227408, -0.0947339578784853, -0.1761995962966435, 0.05217583722538814, 0.01966687015358344, -0.22133033416469772, 0.055454692748822317, -0.05324452237609292, 0.3581589314952224, -0.12868461526709923, 0.038355840428021516, -0.2686079427031074, 0.3783223113206419, -0.03640500094441807, -0.23694977193086234, -0.052112965605913206, 0.2417316533988019, 0.36861126730079047, -0.19033694244320512, 0.09544586344467017, 0.0732732580064762, 0.236279187908539, -0.07476908607129115, -0.26738672632561705, 0.07722955065144843]], "b2": [-0.00942424018452908, -0.027487710886038883, -0.08402761298170698, 0.040568132050972365, 0.01186101064328316, -0.0046804023333958744, -0.12236560827038259, 0.012000794976719208, -0.11649995099956582, 0.004911706863913541, -0.006568550973314699, 0.2568682554746769, 0.23764418699078954, 0.04676258565299075, 0.0015071617770588699, 0.2274994062658468, -0.023403858986407657, 0.12171129561894355, -0.02006853373899395, 0.010294541116280599, 0.044340331289721716, 0.000796619868387713, 0.00510046565114042, -0.14485361220332063, -0.03595423592952479, -0.05252433299074251, -0.02067413656900232, -0.11081810010311097, 0.5687293742293977, 0.01092560105636872, 0.015197620484516526, 0.2499985269570032], "W3": [[0.03250412196847452], [0.49909805605200064], [0.33921201840711457], [-0.049213467164482015], [-0.037085341196847706], [0.06117768818876682], [0.3809052163867359], [-0.03700652052229648], [0.525777922658038], [0.013425419009362704], [0.053190480978493215], [-0.30852544708683804], [-0.3115833731339303], [-0.12416230347952141], [-0.025255875259894797], [-0.3254831211456109], [0.18314048841377742], [-0.17764520974333042], [0.24146361660773263], [-0.051383383744560654], [-0.18111412153134857], [0.002455682572868882], [-0.05216333771556429], [0.41537692198028126], [0.08803327519707414], [0.2878781095454524], [0.07777085610270333], [0.3273371581193334], [-0.6493885470574081], [-0.07396007724244033], [-0.024517111727919896], [-0.37325789442722235]], "b3": [-0.7244701638479245]}