{"W1": [[0.08592812880431669, -0.6835464995061451, -0.04873637479905082, 0.025132316654399155, -0.3067105475753937, -0.14710072841627184, -0.0023464764690786562, 0.12705683015313748, 0.3037251297645813, -0.0820046757914857, 0.31016942235720785, 0.33793892039719575, -0.155934726406459, -0.15102228258730674, 0.26796755385404003, -0.05432794849902908, -0.03437686615730025, -0.20108867440545555, -0.22824587784119585, -0.7655517383605329, -0.21082508427652172, 0.26669689551828146, -0.10118710627629918, 0.290274664149591, 0.8581828549797541, 0.15419518458092632, -0.535539925568878, -0.2673864896124668, -0.308568507145752, 0.3094248502699375, -0.4703001480161804, -0.22126247574295133], [0.06803572333957786, -0.23475218874110426, -0.41390581533294524, 0.571415482443784, 0.42544349904564477, -0.0648689051547505, 0.4579629342136724, 0.08191058822883993, -0.2714459825747882, 0.026049423177090456, 0.07327405233223977, -0.9251918760063964, 0.08545335191898858, -0.6194604630415601, 0.17497531853868142, 0.040513902090268186, 0.16154517858267203, 0.24030340265323738, -0.42106470813569635, 0.27216785670739885, -0.3549186182282105, -0.03356994834606753, -0.21872961964040005, -0.5478373435132186, -0.1407509988103968, 0.23648351804718307, 0.34559956525231594, -0.2224992687758987, -0.48812075293547597, -0.6056066565077158, 0.13268439794769726, 0.35868964611043297], [0.33558616413024606, 0.47735466495041956, 0.18079897071673853, -0.31212170185846666, 0.0923639493727313, -0.015671620796788504, 0.21425269752561416, -0.02796987030364532, -0.5663086491935035, -0.1651508057014187, 0.0528074145358129, -0.4754921467473052, 0.5595075421074704, 0.13401412704073054, -0.24871967184385765, -0.1020558298993878, 0.32509504444085957, 0.4562676794810187, -0.3697014324857483, 0.1647977099698305, -0.02174829728938681, -0.5174923163967496, -0.062364804459508476, 0.14389739325905632, -0.2409639932832147, -0.4924499188547082, -0.6476914600356293, -0.07529050844990402, 0.20139210377752634, -0.3300249613664873, -0.0726809384310062, 0.16604400931871], [0.028044529250902752, -0.25002107246311106, -0.23287119791931946, -0.32396215875028617, -0.3322535422583001, -0.035898776770883864, 0.030006668400550045, -0.1299203421076795, -0.20725309833949335, -0.6265995997375937, -0.4510808772342233, -0.7402718762484164, -0.2981442194688848, -0.06267577168143883, 0.2626154082657326, 0.1565857911330562, -0.15134084669740486, 0.20797016027649126, 0.12247032220763787, -0.3303150765867275, -0.47255017884303563, -0.4637419631502041, -0.27808207721967687, 0.07379933929425538, -0.39329371098837995, -0.020392779022863863, -0.3878873735226088, -0.05806502716978947, 0.1906319191897052, -0.46414383709160417, 0.7359585996575136, -0.04750440166863978], [0.3173450412553152, -0.5557076071839037, 0.07312383012685296, -0.3490107557585844, 0.786216996990027, 0.10503246323000935, 0.07997112382964922, -0.05566040383689555, -0.44172284742158313, -0.1099607968060199, -0.5080411596019601, -0.10675748706191439, -0.25176147907910845, -0.2287710301726702, 0.13932163654897786, -0.04623792569085137, -0.3931825842672394, 0.37735374167403507, -0.09847044038496866, 0.007696570443017587, -0.005087155525665233, 0.5183458032042114, -0.4008926915853943, -0.30358251287177324, 0.21492515965478567, -0.3741901415413705, 0.01475411288429402, 0.6113235587245, -0.3205765910166159, -0.5629619298364565, 0.3544801133767102, -0.6067232769657812], [0.5548318885591729, -0.03416001435589188, -0.24033498995419106, 0.23993242312746518, -0.025883718032212014, -0.35756956697074527, 0.1340950849894061, -0.1222448553662814, -0.1172325603980069, 0.579788050074749, 0.4813395876081921, 0.29935410860987016, 0.1036938718167983, -0.45572925158986655, 0.09098610534918433, -0.08612790804071249, 0.5533721927078388, -0.09136735331664957, -0.05906767207056457, 0.31376812250060865, 0.17825204672323344, -0.2804792640496915, 0.28380397742338137, -0.518215069675889, -0.48698053521763857, -0.20689233955387315, -0.5474973357537273, -0.3741761801800494, 0.03364423873905933, -0.5073066101846091, 0.6163981073797612, 0.6667755034851504], [0.4572283334444272, 0.0002350519134481917, 0.41440507965313855, -0.09964707656105201, -0.1237857654922146, -0.016676075877068396, 0.5499105604745153, 0.1573561146603724, 0.009749639921850482, -0.1521094888642474, 0.04810061218881066, 0.08072762742374401, 0.26481222835515866, 0.058878336759428246, 0.3217255886230699, -0.13650100969326162, -0.09640607259459813, -0.015155344540855813, -0.018345496728462887, -0.15102487788633198, -0.14014410153663281, 0.11856909408451799, -0.5230128068097262, 0.08907681814007903, -0.10967295534555734, 0.21171397742898357, 0.3035121959968164, 0.146179820086781, -0.14128775413752806, 0.37996198634204253, -0.28104098360719476, -0.01824091274839005], [0.44973215853540643, -0.36805438111081545, -0.06734694041558219, -0.008173021814887648, 0.053091482997562785, -0.3171464946482565, -0.2359415021248931, 0.05922981953142745, -0.24131459348630105, 0.07177937327552249, 0.5078681884879621, -0.02966254693598823, -0.21209465902594304, -0.5900097778909682, 0.8755918591916676, 0.09004474144433375, -0.5621262656992018, 0.1573909417519963, 0.22367994427715404, 0.11278974464159354, 0.04946011335872502, 0.004185098104754087, 0.12954876967483883, -0.05159492868065714, 0.14754397079589981, -0.3131086360811625, -0.06132552087033903, 0.14459059729685622, -0.25092154381627857, 0.30180560561959885, 0.3742753852333457, -0.17638527471828722], [0.09020767398411086, -0.14079551942322324, 0.6024892045950668, -0.25556715916775036, -0.6200350680588508, -0.0593237779952333, 0.18590904988732, -0.271767470859068, -0.5404154086523832, 0.5521291964136087, -0.6930985101054601, 0.17611416484079914, 0.1548077680195162, 0.2819382005705246, 0.17352919667829553, -0.1928272785905406, 0.5701085447857297, -0.34690023384078095, -0.6442816091197011, -0.1231464730064841, -0.17219712435876844, 0.2465337620554353, -0.2632291731258085, 0.023855651050189414, -0.15471031189487658, 0.4241118587769562, -0.06711250870618107, 0.35097446567843776, -0.13067838994716455, -0.30129182463135007, -0.5280660464105412, 0.2675988816938742], [0.3847244868034331, 0.08850281804328995, -0.26023759696638105, 0.08728949959432007, -0.13212930551798532, 0.3105773321510409, 0.06478420339154352, -0.201489218382184, 0.2245273123352216, -0.5252768401393563, 0.010898318154970861, 0.086985416076315, -0.11976918151505397, 0.45037595000781316, 0.0881828248582323, -0.16541194334033496, -0.05974286561849757, 0.2593615578324815, -0.09736060910808936, -0.03513062593434096, 0.2719200759065373, -0.2634099218692682, -0.29085613002583344, -0.15856328957177995, 0.1477152179832943, 0.23377371356451096, -0.1519117450295914, 0.506172120448313, -0.2294481759197784, 0.04753824527915364, 0.3738820493888772, 0.285217780332354], [0.2996075713305119, 0.2900066831521, 0.0768902433725439, 0.2102549456082288, -0.0817868919106918, 0.3460189763686545, 0.18621052247713035, -0.3701620466614478, 0.2337082084957561, 0.3293941472266235, 0.11545580376961324, -0.3021032794432818, -0.17354200707628697, -0.2427589922946266, 0.18248792646980685, 0.13524987455084392, -0.26027809452339434, -0.3221837498474952, 0.19475117865936006, -0.14039790773035984, -0.117791311196309, -0.04235825713519586, 0.5120773042682382, -0.5581065483230379, 0.5472902790675398, -0.4552492660287442, 0.34616934731794224, 0.24648003518271952, 0.3344179517201236, -0.133802884809988, -0.337704598557584, -0.1386061446369286]], "b1": [-0.18027317823202435, 0.10403092103788494, 0.005124797983159318, 0.08911666405316274, -0.004423984088568742, 0.0798701182773733, -0.028594413795197532, 0.1853529941084316, -0.02899811929841881, -0.016997168532406258, 0.06919954249453418, 0.18716403724331404, 0.05696961053743707, -0.009133019898948293, -0.09509005641803113, 0.38508690792569455, 0.01366493549968254, 0.2031445399424331, 0.11450580364797369, 0.023877863085053318, -0.08248482107625026, -0.022128616044612113, 0.05802541691692696, -0.06419618221566299, 0.041240964465397524, 0.15311591236680477, 0.2611357509416008, -0.02823404243946947, 0.006345384143742938, 0.2052875098417594, -0.07411978792058235, 0.019118903410431556], "W2": [[0.7423288489775862], [-0.24529993798090688], [-0.04289062717169876], [-0.22331257523225875], [-0.07544950093623193], [-0.13516613213205275], [0.5210865825068821], [-0.24560844002024132], [0.11057136662011752], [0.058981138585488], [-0.146350490046054], [-0.29793676855602824], [-0.21066890041065808], [-0.01468857145705234], [0.42062855007723426], [-0.4470677349323758], [0.0011210230784522697], [-0.2802946918072712], [-0.2106179026027834], [-0.09493372636432912], [0.11305040137859612], [-0.03435840900364676], [-0.13863794354691153], [0.09903481828673255], [-0.09865457590893384], [-0.2522517842657987], [-0.3983897268448319], [0.09939415121520319], [-0.024666080998564408], [-0.356836073542621], [0.12826522445920388], [-0.0035140070642519445]], "b2": [-1.0112331116498239]}